network unknown {
}
variable age {
    type discrete [ 4 ] { 1.0, 2.0, 3.0, 4.0 };
}
variable ca {
    type discrete [ 4 ] { 0.0, 1.0, 2.0, 3.0 };
}
variable chol {
    type discrete [ 3 ] { 1.0, 2.0, 3.0 };
}
variable cp {
    type discrete [ 4 ] { 1.0, 2.0, 3.0, 4.0 };
}
variable exang {
    type discrete [ 2 ] { 0.0, 1.0 };
}
variable fbs {
    type discrete [ 2 ] { 0.0, 1.0 };
}
variable num {
    type discrete [ 5 ] { 0, 1, 2, 3, 4 };
}
variable oldpeak {
    type discrete [ 3 ] { 1.0, 2.0, 3.0 };
}
variable restecg {
    type discrete [ 3 ] { 0.0, 1.0, 2.0 };
}
variable sex {
    type discrete [ 2 ] { 0.0, 1.0 };
}
variable slope {
    type discrete [ 3 ] { 1.0, 2.0, 3.0 };
}
variable thal {
    type discrete [ 3 ] { 3.0, 6.0, 7.0 };
}
variable thalach {
    type discrete [ 4 ] { 1.0, 2.0, 3.0, 4.0 };
}
variable trestbps {
    type discrete [ 5 ] { 1.0, 2.0, 3.0, 4.0, 5.0 };
}
probability ( age ) {
    table 0.05907172995780591, 0.25316455696202533, 0.43037974683544306, 0.25738396624472576 ;
}
probability ( ca | num ) {
    ( 0 ) 0.7938931297709924, 0.13740458015267176, 0.04580152671755725, 0.022900763358778626;
    ( 1 ) 0.47619047619047616, 0.3333333333333333, 0.11904761904761904, 0.07142857142857142;
    ( 2 ) 0.21739130434782608, 0.43478260869565216, 0.17391304347826086, 0.17391304347826086;
    ( 3 ) 0.26666666666666666, 0.2, 0.36666666666666664, 0.16666666666666666;
    ( 4 ) 0.2727272727272727, 0.18181818181818182, 0.18181818181818182, 0.36363636363636365;

}
probability ( chol | age, sex ) {
    ( 1.0, 0.0 ) 0.5, 0.5, 0.0;
    ( 1.0, 1.0 ) 0.4, 0.3, 0.3;
    ( 2.0, 0.0 ) 0.2222222222222222, 0.3333333333333333, 0.4444444444444444;
    ( 2.0, 1.0 ) 0.19047619047619047, 0.3333333333333333, 0.47619047619047616;
    ( 3.0, 0.0 ) 0.04, 0.12, 0.84;
    ( 3.0, 1.0 ) 0.15584415584415584, 0.35064935064935066, 0.4935064935064935;
    ( 4.0, 0.0 ) 0.06896551724137931, 0.20689655172413793, 0.7241379310344828;
    ( 4.0, 1.0 ) 0.0625, 0.21875, 0.71875;

}
probability ( cp | exang ) {
    ( 0.0 ) 0.09032258064516129, 0.2064516129032258, 0.3870967741935484, 0.3161290322580645;
    ( 1.0 ) 0.04878048780487805, 0.04878048780487805, 0.13414634146341464, 0.7682926829268293;

}
probability ( exang | num ) {
    ( 0 ) 0.8396946564885496, 0.16030534351145037;
    ( 1 ) 0.5238095238095238, 0.47619047619047616;
    ( 2 ) 0.34782608695652173, 0.6521739130434783;
    ( 3 ) 0.3, 0.7;
    ( 4 ) 0.5454545454545454, 0.45454545454545453;

}
probability ( fbs | age ) {
    ( 1.0 ) 1.0, 0.0;
    ( 2.0 ) 0.9166666666666666, 0.08333333333333333;
    ( 3.0 ) 0.803921568627451, 0.19607843137254902;
    ( 4.0 ) 0.819672131147541, 0.18032786885245902;

}
probability ( num | chol, trestbps ) {
    ( 1.0, 1.0 ) 0.5555555555555556, 0.2222222222222222, 0.05555555555555555, 0.16666666666666666, 0.0;
    ( 1.0, 2.0 ) 0.8, 0.2, 0.0, 0.0, 0.0;
    ( 1.0, 3.0 ) 0.6, 0.1, 0.1, 0.1, 0.1;
    ( 1.0, 4.0 ) 0.5, 0.0, 0.0, 0.5, 0.0;
    ( 1.0, 5.0 ) 0.2, 0.2, 0.2, 0.2, 0.2;
    ( 2.0, 1.0 ) 0.5769230769230769, 0.11538461538461539, 0.11538461538461539, 0.11538461538461539, 0.07692307692307693;
    ( 2.0, 2.0 ) 0.8181818181818182, 0.09090909090909091, 0.0, 0.045454545454545456, 0.045454545454545456;
    ( 2.0, 3.0 ) 0.6470588235294118, 0.17647058823529413, 0.0, 0.058823529411764705, 0.11764705882352941;
    ( 2.0, 4.0 ) 0.6666666666666666, 0.0, 0.0, 0.3333333333333333, 0.0;
    ( 2.0, 5.0 ) 0.2, 0.2, 0.2, 0.2, 0.2;
    ( 3.0, 1.0 ) 0.6764705882352942, 0.17647058823529413, 0.058823529411764705, 0.08823529411764706, 0.0;
    ( 3.0, 2.0 ) 0.4423076923076923, 0.21153846153846154, 0.17307692307692307, 0.15384615384615385, 0.019230769230769232;
    ( 3.0, 3.0 ) 0.45161290322580644, 0.22580645161290322, 0.0967741935483871, 0.16129032258064516, 0.06451612903225806;
    ( 3.0, 4.0 ) 0.25, 0.25, 0.25, 0.08333333333333333, 0.16666666666666666;
    ( 3.0, 5.0 ) 0.2, 0.2, 0.2, 0.4, 0.0;

}
probability ( oldpeak | cp, restecg ) {
    ( 1.0, 0.0 ) 0.0, 0.6, 0.4;
    ( 1.0, 1.0 ) 0.3333333333333333, 0.3333333333333333, 0.3333333333333333;
    ( 1.0, 2.0 ) 0.5384615384615384, 0.3076923076923077, 0.15384615384615385;
    ( 2.0, 0.0 ) 0.9565217391304348, 0.043478260869565216, 0.0;
    ( 2.0, 1.0 ) 0.3333333333333333, 0.3333333333333333, 0.3333333333333333;
    ( 2.0, 2.0 ) 0.6153846153846154, 0.38461538461538464, 0.0;
    ( 3.0, 0.0 ) 0.6666666666666666, 0.2564102564102564, 0.07692307692307693;
    ( 3.0, 1.0 ) 0.3333333333333333, 0.3333333333333333, 0.3333333333333333;
    ( 3.0, 2.0 ) 0.59375, 0.28125, 0.125;
    ( 4.0, 0.0 ) 0.425, 0.45, 0.125;
    ( 4.0, 1.0 ) 0.0, 0.0, 1.0;
    ( 4.0, 2.0 ) 0.5211267605633803, 0.15492957746478872, 0.323943661971831;

}
probability ( restecg | num ) {
    ( 0 ) 0.5419847328244275, 0.0, 0.4580152671755725;
    ( 1 ) 0.38095238095238093, 0.0, 0.6190476190476191;
    ( 2 ) 0.34782608695652173, 0.043478260869565216, 0.6086956521739131;
    ( 3 ) 0.3333333333333333, 0.0, 0.6666666666666666;
    ( 4 ) 0.18181818181818182, 0.0, 0.8181818181818182;

}
probability ( sex ) {
    table 0.3206751054852321, 0.679324894514768 ;
}
probability ( slope | restecg ) {
    ( 0.0 ) 0.5794392523364486, 0.3644859813084112, 0.056074766355140186;
    ( 1.0 ) 0.0, 1.0, 0.0;
    ( 2.0 ) 0.3875968992248062, 0.5193798449612403, 0.09302325581395349;

}
probability ( thal ) {
    table 0.5527426160337553, 0.04219409282700422, 0.4050632911392405 ;
}
probability ( thalach | num ) {
    ( 0 ) 0.022900763358778626, 0.10687022900763359, 0.29770992366412213, 0.5725190839694656;
    ( 1 ) 0.14285714285714285, 0.14285714285714285, 0.40476190476190477, 0.30952380952380953;
    ( 2 ) 0.30434782608695654, 0.21739130434782608, 0.34782608695652173, 0.13043478260869565;
    ( 3 ) 0.3333333333333333, 0.3333333333333333, 0.16666666666666666, 0.16666666666666666;
    ( 4 ) 0.09090909090909091, 0.45454545454545453, 0.18181818181818182, 0.2727272727272727;

}
probability ( trestbps | fbs, thal ) {
    ( 0.0, 3.0 ) 0.38596491228070173, 0.3333333333333333, 0.21052631578947367, 0.05263157894736842, 0.017543859649122806;
    ( 0.0, 6.0 ) 0.25, 0.25, 0.375, 0.125, 0.0;
    ( 0.0, 7.0 ) 0.34177215189873417, 0.2911392405063291, 0.27848101265822783, 0.0759493670886076, 0.012658227848101266;
    ( 1.0, 3.0 ) 0.058823529411764705, 0.5882352941176471, 0.29411764705882354, 0.058823529411764705, 0.0;
    ( 1.0, 6.0 ) 0.0, 0.5, 0.5, 0.0, 0.0;
    ( 1.0, 7.0 ) 0.23529411764705882, 0.29411764705882354, 0.17647058823529413, 0.17647058823529413, 0.11764705882352941;

}
