network unknown {
}
variable age {
    type discrete [ 4 ] { 1, 2, 3, 4 };
}
variable angina {
    type discrete [ 2 ] { 0, 1 };
}
variable chol {
    type discrete [ 3 ] { 1, 2, 3 };
}
variable cpt {
    type discrete [ 4 ] { 1, 2, 3, 4 };
}
variable diagnosis {
    type discrete [ 2 ] { 0, 1 };
}
variable ecg {
    type discrete [ 3 ] { 0, 1, 2 };
}
variable flourosopy {
    type discrete [ 4 ] { 0, 1, 2, 3 };
}
variable maxbpm {
    type discrete [ 3 ] { 1, 2, 3 };
}
variable oldpeak {
    type discrete [ 4 ] { 1, 2, 3, 4 };
}
variable pressure {
    type discrete [ 5 ] { 1, 2, 3, 4, 5 };
}
variable sex {
    type discrete [ 2 ] { 0, 1 };
}
variable slope {
    type discrete [ 3 ] { 1, 2, 3 };
}
variable sugar {
    type discrete [ 2 ] { 0, 1 };
}
variable thal {
    type discrete [ 3 ] { 3, 6, 7 };
}
probability ( age ) {
    table 0.03409090909090909, 0.42665289256198347, 0.4059917355371901, 0.13326446280991736 ;
}
probability ( angina | sugar ) {
    ( 0 ) 0.641439205955335, 0.358560794044665;
    ( 1 ) 0.6728395061728395, 0.3271604938271605;

}
probability ( chol | sugar ) {
    ( 0 ) 0.1530190239867659, 0.7088502894954507, 0.13813068651778326;
    ( 1 ) 0.16872427983539093, 0.7119341563786008, 0.11934156378600823;

}
probability ( cpt | diagnosis ) {
    ( 0 ) 0.10770750988142293, 0.21047430830039526, 0.4160079051383399, 0.2658102766798419;
    ( 1 ) 0.05735930735930736, 0.07467532467532467, 0.13528138528138528, 0.7326839826839827;

}
probability ( diagnosis | angina, maxbpm ) {
    ( 0, 1 ) 0.4675675675675675, 0.5324324324324324;
    ( 0, 2 ) 0.6886051080550099, 0.3113948919449902;
    ( 0, 3 ) 0.7938775510204082, 0.20612244897959184;
    ( 1, 1 ) 0.13265306122448983, 0.8673469387755103;
    ( 1, 2 ) 0.2939914163090128, 0.7060085836909871;
    ( 1, 3 ) 0.7571428571428571, 0.24285714285714285;

}
probability ( ecg | diagnosis ) {
    ( 0 ) 0.536231884057971, 0.014492753623188408, 0.4492753623188406;
    ( 1 ) 0.39682539682539686, 0.024531024531024532, 0.5786435786435786;

}
probability ( flourosopy | diagnosis ) {
    ( 0 ) 0.8191699604743083, 0.10770750988142293, 0.044466403162055336, 0.02865612648221344;
    ( 1 ) 0.3170995670995671, 0.3344155844155844, 0.22186147186147187, 0.1266233766233766;

}
probability ( maxbpm | age, thal ) {
    ( 1, 3 ) 0.02564102564102564, 0.21025641025641023, 0.7641025641025642;
    ( 1, 6 ) 0.3333333333333333, 0.3333333333333333, 0.3333333333333333;
    ( 1, 7 ) 0.471264367816092, 0.471264367816092, 0.0574712643678161;
    ( 2, 3 ) 0.0952996981457525, 0.5299698145752479, 0.37473048727899966;
    ( 2, 6 ) 0.6260162601626016, 0.3333333333333333, 0.04065040650406505;
    ( 2, 7 ) 0.3709803921568627, 0.42745098039215684, 0.20156862745098036;
    ( 3, 3 ) 0.2508591065292096, 0.6219931271477662, 0.12714776632302405;
    ( 3, 6 ) 0.43952802359882004, 0.5457227138643067, 0.014749262536873154;
    ( 3, 7 ) 0.3746414228341939, 0.5398737808376363, 0.08548479632816983;
    ( 4, 3 ) 0.5221745350500715, 0.41917024320457796, 0.0586552217453505;
    ( 4, 6 ) 0.803921568627451, 0.09803921568627452, 0.09803921568627452;
    ( 4, 7 ) 0.45012165450121655, 0.537712895377129, 0.0121654501216545;

}
probability ( oldpeak | ecg ) {
    ( 0 ) 0.5579178885630498, 0.30278592375366564, 0.09164222873900292, 0.047653958944281524;
    ( 1 ) 0.0892857142857143, 0.3035714285714286, 0.0892857142857143, 0.5178571428571429;
    ( 2 ) 0.5128032345013477, 0.2459568733153639, 0.18126684636118598, 0.05997304582210242;

}
probability ( pressure | age, sex, sugar ) {
    ( 1, 0, 0 ) 0.02702702702702703, 0.4594594594594595, 0.4594594594594595, 0.02702702702702703, 0.02702702702702703;
    ( 1, 0, 1 ) 0.2, 0.2, 0.2, 0.2, 0.2;
    ( 1, 1, 0 ) 0.2, 0.38823529411764707, 0.38823529411764707, 0.011764705882352941, 0.011764705882352941;
    ( 1, 1, 1 ) 0.2, 0.2, 0.2, 0.2, 0.2;
    ( 2, 0, 0 ) 0.33161953727506427, 0.16709511568123395, 0.4138817480719794, 0.08483290488431877, 0.002570694087403599;
    ( 2, 0, 1 ) 0.02702702702702703, 0.02702702702702703, 0.8918918918918919, 0.02702702702702703, 0.02702702702702703;
    ( 2, 1, 0 ) 0.291866028708134, 0.291866028708134, 0.13875598086124402, 0.261244019138756, 0.016267942583732056;
    ( 2, 1, 1 ) 0.18232044198895028, 0.35911602209944754, 0.27071823204419887, 0.18232044198895028, 0.0055248618784530384;
    ( 3, 0, 0 ) 0.08847184986595175, 0.13136729222520108, 0.30294906166219837, 0.4745308310991957, 0.002680965147453083;
    ( 3, 0, 1 ) 0.009900990099009901, 0.16831683168316833, 0.32673267326732675, 0.32673267326732675, 0.16831683168316833;
    ( 3, 1, 0 ) 0.12541620421753608, 0.26748057713651496, 0.2142064372918979, 0.39178690344062156, 0.0011098779134295228;
    ( 3, 1, 1 ) 0.08629441624365482, 0.16751269035532995, 0.16751269035532995, 0.5736040609137056, 0.005076142131979695;
    ( 4, 0, 0 ) 0.27071823204419887, 0.18232044198895028, 0.0055248618784530384, 0.5359116022099447, 0.0055248618784530384;
    ( 4, 0, 1 ) 0.32075471698113206, 0.018867924528301886, 0.018867924528301886, 0.6226415094339622, 0.018867924528301886;
    ( 4, 1, 0 ) 0.07981220657276995, 0.38028169014084506, 0.07981220657276995, 0.45539906103286387, 0.004694835680751174;
    ( 4, 1, 1 ) 0.014492753623188406, 0.2463768115942029, 0.2463768115942029, 0.4782608695652174, 0.014492753623188406;

}
probability ( sex ) {
    table 0.3037190082644628, 0.6962809917355371 ;
}
probability ( slope | ecg ) {
    ( 0 ) 0.5151515151515151, 0.40957966764418374, 0.07526881720430106;
    ( 1 ) 0.11904761904761907, 0.5476190476190477, 0.33333333333333337;
    ( 2 ) 0.40071877807726863, 0.5381850853548966, 0.06109613656783468;

}
probability ( sugar ) {
    table 0.8326446280991735, 0.16735537190082644 ;
}
probability ( thal ) {
    table 0.5358126721763085, 0.0606060606060606, 0.4035812672176309 ;
}
